digraph Tree {
node [shape=box] ;
0 [label="X[0] <= 1000.0\nfriedman_mse = 26.0\nsamples = 4\nvalue = 0.0"] ;
1 [label="X[1] <= 0.5\nfriedman_mse = 1.0\nsamples = 2\nvalue = -5.0"] ;
0 -> 1 [labeldistance=2.5, labelangle=45, headlabel="True"] ;
2 [label="friedman_mse = 0.0\nsamples = 1\nvalue = -6.0"] ;
1 -> 2 ;
3 [label="friedman_mse = 0.0\nsamples = 1\nvalue = -4.0"] ;
1 -> 3 ;
4 [label="X[1] <= 0.5\nfriedman_mse = 1.0\nsamples = 2\nvalue = 5.0"] ;
0 -> 4 [labeldistance=2.5, labelangle=-45, headlabel="False"] ;
5 [label="friedman_mse = 0.0\nsamples = 1\nvalue = 4.0"] ;
4 -> 5 ;
6 [label="friedman_mse = 0.0\nsamples = 1\nvalue = 6.0"] ;
4 -> 6 ;
}